{
  "artifactKind": "nhl_xg_rebound_rich_offline_heads",
  "artifactVersion": 1,
  "generatedAt": "2026-07-13T00:49:25.821Z",
  "offlineOnly": true,
  "promotionAuthorized": false,
  "sourceFeatureArtifactTag": "logistic_l2-s20252026-p1-st1-f1-cfg2afcf561",
  "sourceFeatureArtifactSha256": "6447ca9099f7618cd1bf07be403262c892aab23eef120fc144cee6a8f704650c",
  "referenceDatasetSha256": "2dba4a6bd600be7b6c2c27ba31fc99575001a30e903569119f57d4b5e162c16d",
  "contract": {
    "labelVersion": "rebound_rich_labels_v1",
    "rowGrain": "one eligible rebound-source shot event",
    "windowSeconds": 3,
    "possessionRule": "next eligible attempt must remain in the source possession sequence",
    "terminationRules": [
      "opponent_control",
      "stoppage",
      "faceoff",
      "penalty",
      "period_or_game_end",
      "window_expired"
    ],
    "dangerRule": "conditional next-attempt distance <=20 feet and angle <=35 degrees",
    "freezeRule": "shot-on-goal followed by bounded stoppage; interpreted as freeze/covered-puck proxy",
    "secondChanceRule": "conditional next unblocked attempt goal label; separate shot-goal head",
    "splitRule": "exact frozen champion game-level chronological splits"
  },
  "coverage": {
    "games": 1381,
    "labelRows": 145050,
    "missingFeatureRows": 83,
    "terminationCounts": {
      "goalie_freeze_covered_puck": 18316,
      "next_attempt": 2208,
      "opponent_control": 2727,
      "period_or_game_end": 4,
      "possession_break": 15204,
      "stoppage": 6965,
      "window_expired": 99626
    }
  },
  "heads": [
    {
      "head": "conditional_rebound_danger",
      "trained": true,
      "promotionAuthorized": false,
      "fit": {
        "family": "logistic_l2",
        "iterations": 500,
        "learningRate": 0.05,
        "l2": 0.01
      },
      "splitCounts": {
        "train": 1515,
        "validation": 323,
        "test": 367
      },
      "trainPositiveRate": 0.35181518151815183,
      "validation": {
        "rows": 323,
        "positives": 110,
        "positiveRate": 0.34055727554179566,
        "averagePrediction": 0.3532622501585505,
        "brier": 0.22266724164728333,
        "logLoss": 0.63666717082204,
        "auc": 0.574221084080239,
        "baseRateBrier": 0.22470475806431767,
        "baseRateLogLoss": 0.641683704513925
      },
      "test": {
        "rows": 367,
        "positives": 127,
        "positiveRate": 0.3460490463215259,
        "averagePrediction": 0.3553021047377338,
        "brier": 0.22179155857197036,
        "logLoss": 0.6358053771113231,
        "auc": 0.5827755905511811,
        "baseRateBrier": 0.2263323521765938,
        "baseRateLogLoss": 0.645039560248286
      },
      "offlineGatePassed": true,
      "blockingReasons": [],
      "model": {
        "featureCount": 65,
        "weights": [
          0.12037436660483629,
          -0.09246431552615163,
          -0.11939824130769812,
          -0.143190499079895,
          0.029860259210993428,
          -0.030912474489423313,
          0.018284743446875706,
          0.09324556492459664,
          0.031357484316558965,
          0.05375969260251571,
          0.019252013629561124,
          -0.01647609781824604,
          0.02278544270921471,
          -0.11076897354884363,
          -0.053056594525955854,
          -0.03813516355144714,
          -0.19174602201961996,
          -0.033121366495695075,
          0.029558425289064497,
          0.08321482207245463,
          0.03324956816517925,
          0.019980666130372745,
          0,
          0,
          -0.019303896865130062,
          -0.010040870281817516,
          0.0173977834782702,
          -0.09945429253206903,
          0.07029355587848383,
          0.07833136021041683,
          0.11518633412019894,
          -0.033121366495695075,
          -0.11978627092443243,
          -0.04718187813988968,
          0.008343493540397021,
          0,
          0,
          0.02731450675665079,
          -0.0023479798140555214,
          -0.0067949001153814826,
          0,
          -0.020350309370813818,
          0.011882975032715033,
          0.007042900730834311,
          -0.007791653996021683,
          -0.031634776846330724,
          -0.13207713030189658,
          0.0038762974478036287,
          0,
          0.01272008692036642,
          -0.053586038463490374,
          -0.2972868239975473,
          -0.0037276871584000417,
          0.10926848913632721,
          0.04495758713703938,
          0.004720705596142695,
          -0.1138433152549979,
          -0.05897694036017121,
          -0.026017971796156277,
          0.06998020043608941,
          0,
          0,
          -0.009614042144355092,
          0,
          -0.10295224563321081
        ],
        "bias": -0.23217257583492004
      }
    },
    {
      "head": "goalie_freeze_control",
      "trained": true,
      "promotionAuthorized": false,
      "fit": {
        "family": "logistic_l2",
        "iterations": 500,
        "learningRate": 0.05,
        "l2": 0.01
      },
      "splitCounts": {
        "train": 45842,
        "validation": 9661,
        "test": 9530
      },
      "trainPositiveRate": 0.28137952096330876,
      "validation": {
        "rows": 9661,
        "positives": 2671,
        "positiveRate": 0.27647241486388574,
        "averagePrediction": 0.2885343231177822,
        "brier": 0.19417952170550862,
        "logLoss": 0.574023289347267,
        "auc": 0.6083279906203921,
        "baseRateBrier": 0.20005949837349207,
        "baseRateLogLoss": 0.5896504618068379
      },
      "test": {
        "rows": 9530,
        "positives": 2736,
        "positiveRate": 0.287093389296957,
        "averagePrediction": 0.28884517648778124,
        "brier": 0.19778212624322783,
        "logLoss": 0.5814223925138287,
        "auc": 0.6173797571644744,
        "baseRateBrier": 0.20470342341028044,
        "baseRateLogLoss": 0.5996089955104654
      },
      "offlineGatePassed": true,
      "blockingReasons": [],
      "model": {
        "featureCount": 65,
        "weights": [
          0.08723643976282867,
          0.04502516747733052,
          -0.01601472172343214,
          -0.0537106957365195,
          -0.007747717211935047,
          0.005841164158582826,
          -0.005468239612078849,
          -0.02849705820643883,
          -0.039959889645075006,
          -0.03592819454345262,
          -0.0044412823334537615,
          0.0791693602236656,
          -0.06306762626257097,
          -0.06250572797193259,
          0.038947265665164085,
          -0.05239067248334857,
          -0.5821653807837031,
          -0.03875290198165107,
          -0.030977872196503737,
          -0.026342768183649227,
          -0.08007431853130546,
          -0.0016236393751476853,
          0.0021996980348812623,
          -0.0001549061711899663,
          0.0003679733582196168,
          0.008886852328344524,
          -0.002676067170140718,
          -0.019068903096334803,
          -0.1556909968885529,
          -0.021785525644007955,
          -0.057386758317101834,
          -0.03875290198165107,
          -0.09879504171518581,
          -0.08654781858886686,
          -0.10291082918663211,
          -0.002081514755227108,
          -0.0009340451941722027,
          -0.029451047736012162,
          -0.0011176886961825055,
          -0.0023872362987001966,
          -0.0019150992978693203,
          -0.012018077706970845,
          -0.07550543078970164,
          -0.0021994064429520645,
          -0.0034459349712911034,
          -0.10665543020503465,
          -0.057403080604973365,
          -0.016149379709717804,
          0,
          0.001523639043619538,
          -0.017266858107150417,
          -0.12273615579261765,
          -0.12373437974587967,
          -0.0805360559338385,
          -0.02462009729647672,
          -0.03263171571060883,
          -0.06900470401830246,
          -0.06930227794047543,
          -0.038695909801400204,
          -0.03675016199905176,
          -0.0028257068950721075,
          0,
          -0.014367976852539963,
          -0.0009062918921490125,
          -0.03790174906625922
        ],
        "bias": -0.39474438035365333
      }
    },
    {
      "head": "conditional_second_chance_xg",
      "trained": true,
      "promotionAuthorized": false,
      "fit": {
        "family": "logistic_l2",
        "iterations": 500,
        "learningRate": 0.05,
        "l2": 0.01
      },
      "splitCounts": {
        "train": 1184,
        "validation": 254,
        "test": 307
      },
      "trainPositiveRate": 0.11824324324324324,
      "validation": {
        "rows": 254,
        "positives": 29,
        "positiveRate": 0.1141732283464567,
        "averagePrediction": 0.12760787579651198,
        "brier": 0.10101259655754605,
        "logLoss": 0.3543768428518397,
        "auc": 0.5445210727969348,
        "baseRateBrier": 0.1011542672966643,
        "baseRateLogLoss": 0.3552327400295741
      },
      "test": {
        "rows": 307,
        "positives": 39,
        "positiveRate": 0.1270358306188925,
        "averagePrediction": 0.12147281292469836,
        "brier": 0.10889905675829424,
        "logLoss": 0.3709161632089756,
        "auc": 0.6356678147722924,
        "baseRateBrier": 0.11097503795061861,
        "baseRateLogLoss": 0.381075924810804
      },
      "offlineGatePassed": true,
      "blockingReasons": [],
      "model": {
        "featureCount": 65,
        "weights": [
          0.03673567291841516,
          0.0185558118279283,
          -0.07403263510415643,
          -0.09221001620240764,
          -0.02277500504018163,
          -0.07822770598585649,
          -0.04776215595608239,
          -0.009338117600748045,
          0.10649230504996958,
          0.05450531086145442,
          -0.0919038797264236,
          0.128341657314565,
          0.05497368663138892,
          -0.10180783750303313,
          0.027853065212769094,
          -0.026945916387346152,
          -0.47204099383474274,
          0.011229427529181856,
          0.030786112229607636,
          -0.05389266557140605,
          -0.06354781555047898,
          0.002093515646499436,
          0,
          0,
          0.019026810782116793,
          -0.004172565658271073,
          0.07828242653640734,
          0.03371846906906516,
          -0.062916855499883,
          0.012332936676049866,
          -0.15585704840398973,
          0.011229427529181856,
          -0.34434209337533117,
          -0.10424084399638472,
          -0.034687483992208515,
          0,
          0,
          0.034607674033996005,
          -0.01022827485110223,
          -0.0037323106366654664,
          0,
          -0.03313951870850331,
          -0.05608238794670026,
          -0.011918477843138287,
          0.004513725558632501,
          -0.08565081318314072,
          -0.34831473351038156,
          0.08457639378095252,
          0,
          -0.005835945686600316,
          -0.04083632484209171,
          -0.3031152972979213,
          -0.005809571990171806,
          -0.1631161245466501,
          0.07261780902207711,
          -0.005697614344622893,
          -0.20120155537726492,
          -0.04338939517992131,
          -0.14535913371105874,
          -0.008920076723442732,
          0,
          0,
          -0.08448428674682558,
          0,
          -0.055606740773683966
        ],
        "bias": -0.5776431683244384
      }
    }
  ]
}
